<?xml version="1.0"?>
<opencv_storage>
<cascade>
  <stageType>BOOST</stageType>
  <featureType>HAAR</featureType>
  <height>24</height>
  <width>24</width>
  <stageParams>
    <boostType>GAB</boostType>
    <minHitRate>9.9900001287460327e-01</minHitRate>
    <maxFalseAlarm>3.4299999475479126e-01</maxFalseAlarm>
    <weightTrimRate>9.4999999999999996e-01</weightTrimRate>
    <maxDepth>1</maxDepth>
    <maxWeakCount>100</maxWeakCount></stageParams>
  <featureParams>
    <maxCatCount>0</maxCatCount>
    <featSize>1</featSize>
    <mode>BASIC</mode></featureParams>
  <stageNum>12</stageNum>
  <stages>
    <!-- stage 0 -->
    <_>
      <maxWeakCount>7</maxWeakCount>
      <stageThreshold>-1.7776318788528442e+00</stageThreshold>
      <weakClassifiers>
        <_>
          <internalNodes>
            0 -1 37 -7.6538652181625366e-02</internalNodes>
          <leafValues>
            3.4814813733100891e-01 -9.0158015489578247e-01</leafValues></_>
        <_>
          <internalNodes>
            0 -1 163 -1.3187839649617672e-02</internalNodes>
          <leafValues>
            5.0880581140518188e-01 -7.1303415298461914e-01</leafValues></_>
        <_>
          <internalNodes>
            0 -1 18 -4.3743026256561279e-01</internalNodes>
          <leafValues>
            -8.2449567317962646e-01 4.0348312258720398e-01</leafValues></_>
        <_>
          <internalNodes>
            0 -1 148 1.5616474673151970e-02</internalNodes>
          <leafValues>
            -4.6389779448509216e-01 6.6851317882537842e-01</leafValues></_>
        <_>
          <internalNodes>
            0 -1 119 -2.3758774623274803e-03</internalNodes>
          <leafValues>
            7.2078746557235718e-01 -3.1856137514114380e-01</leafValues></_>
        <_>
          <internalNodes>
            0 -1 110 -4.1161221452057362e-04</internalNodes>
          <leafValues>
            7.2506898641586304e-01 -2.9151993989944458e-01</leafValues></_>
        <_>
          <internalNodes>
            0 -1 85 1.0398691520094872e-02</internalNodes>
          <leafValues>
            -3.2048055529594421e-01 7.1448147296905518e-01</leafValues></_></weakClassifiers></_>
    <!-- stage 1 -->
    <_>
      <maxWeakCount>10</maxWeakCount>
      <stageThreshold>-2.0682883262634277e+00</stageThreshold>
      <weakClassifiers>
        <_>
          <internalNodes>
            0 -1 44 4.6452462673187256e-02</internalNodes>
          <leafValues>
            -8.9439553022384644e-01 -9.9476441740989685e-02</leafValues></_>
        <_>
          <internalNodes>
            0 -1 186 -8.5855294018983841e-03</internalNodes>
          <leafValues>
            -7.2955161333084106e-01 9.1826699674129486e-02</leafValues></_>
        <_>
          <internalNodes>
            0 -1 147 -3.2146275043487549e-03</internalNodes>
          <leafValues>
            5.3847432136535645e-01 -3.9660647511482239e-01</leafValues></_>
        <_>
          <internalNodes>
            0 -1 10 5.7734912261366844e-03</internalNodes>
          <leafValues>
            -2.9526752233505249e-01 5.6745946407318115e-01</leafValues></_>
        <_>
          <internalNodes>
            0 -1 93 -5.6150168180465698e-02</internalNodes>
          <leafValues>
            -7.8732156753540039e-01 2.4773740768432617e-01</leafValues></_>
        <_>
          <internalNodes>
            0 -1 178 -9.6162338741123676e-04</internalNodes>
          <leafValues>
            7.3580032587051392e-01 -2.1355997025966644e-01</leafValues></_>
        <_>
          <internalNodes>
            0 -1 135 3.9947335608303547e-04</internalNodes>
          <leafValues>
            -3.0492648482322693e-01 4.5439428091049194e-01</leafValues></_>
        <_>
          <internalNodes>
            0 -1 53 -2.0754723809659481e-03</internalNodes>
          <leafValues>
            4.6707996726036072e-01 -2.8657197952270508e-01</leafValues></_>
        <_>
          <internalNodes>
            0 -1 127 5.5591519922018051e-03</internalNodes>
          <leafValues>
            -2.9643899202346802e-01 5.1916509866714478e-01</leafValues></_>
        <_>
          <internalNodes>
            0 -1 182 2.2254340350627899e-02</internalNodes>
          <leafValues>
            -3.3622455596923828e-01 5.1997286081314087e-01</leafValues></_></weakClassifiers></_>
    <!-- stage 2 -->
    <_>
      <maxWeakCount>11</maxWeakCount>
      <stageThreshold>-1.9412041902542114e+00</stageThreshold>
      <weakClassifiers>
        <_>
          <internalNodes>
            0 -1 133 -6.7555806599557400e-03</internalNodes>
          <leafValues>
            -3.7974682450294495e-01 -8.9970499277114868e-01</leafValues></_>
        <_>
          <internalNodes>
            0 -1 40 3.9340272545814514e-02</internalNodes>
          <leafValues>
            -6.2467163801193237e-01 2.1190513670444489e-01</leafValues></_>
        <_>
          <internalNodes>
            0 -1 165 3.4995420719496906e-04</internalNodes>
          <leafValues>
            -3.2537540793418884e-01 4.4909027218818665e-01</leafValues></_>
        <_>
          <internalNodes>
            0 -1 84 -4.2844451963901520e-03</internalNodes>
          <leafValues>
            4.9595689773559570e-01 -2.5157999992370605e-01</leafValues></_>
        <_>
          <internalNodes>
            0 -1 153 2.2031748667359352e-03</internalNodes>
          <leafValues>
            -2.0743410289287567e-01 5.6376951932907104e-01</leafValues></_>
        <_>
          <internalNodes>
            0 -1 62 -1.3212399184703827e-01</internalNodes>
          <leafValues>
            -1. 1.4347013831138611e-01</leafValues></_>
        <_>
          <internalNodes>
            0 -1 73 -4.9685691483318806e-03</internalNodes>
          <leafValues>
            5.3724533319473267e-01 -2.5711661577224731e-01</leafValues></_>
        <_>
          <internalNodes>
            0 -1 157 7.8568147728219628e-04</internalNodes>
          <leafValues>
            -1.7694030702114105e-01 6.3514328002929688e-01</leafValues></_>
        <_>
          <internalNodes>
            0 -1 169 6.1360292602330446e-04</internalNodes>
          <leafValues>
            -3.2613822817802429e-01 4.0097451210021973e-01</leafValues></_>
        <_>
          <internalNodes>
            0 -1 55 -2.1305042318999767e-03</internalNodes>
          <leafValues>
            3.3629882335662842e-01 -3.3337688446044922e-01</leafValues></_>
        <_>
          <internalNodes>
            0 -1 104 -1.8983500194735825e-04</internalNodes>
          <leafValues>
            4.6448490023612976e-01 -2.2800539433956146e-01</leafValues></_></weakClassifiers></_>
    <!-- stage 3 -->
    <_>
      <maxWeakCount>13</maxWeakCount>
      <stageThreshold>-1.8706278800964355e+00</stageThreshold>
      <weakClassifiers>
        <_>
          <internalNodes>
            0 -1 59 3.5884596407413483e-02</internalNodes>
          <leafValues>
            -8.9658534526824951e-01 -3.7333333492279053e-01</leafValues></_>
        <_>
          <internalNodes>
            0 -1 156 -1.7308115959167480e-02</internalNodes>
          <leafValues>
            3.0499497056007385e-01 -5.4188907146453857e-01</leafValues></_>
        <_>
          <internalNodes>
            0 -1 118 -7.6054647564888000e-02</internalNodes>
          <leafValues>
            4.0109574794769287e-01 -3.2608777284622192e-01</leafValues></_>
        <_>
          <internalNodes>
            0 -1 166 5.5256737396121025e-03</internalNodes>
          <leafValues>
            -1.9900244474411011e-01 5.3075510263442993e-01</leafValues></_>
        <_>
          <internalNodes>
            0 -1 125 1.2077284045517445e-03</internalNodes>
          <leafValues>
            -2.5142550468444824e-01 3.8139426708221436e-01</leafValues></_>
        <_>
          <internalNodes>
            0 -1 47 1.0605603456497192e-02</internalNodes>
          <leafValues>
            -1.6382482647895813e-01 6.5875536203384399e-01</leafValues></_>
        <_>
          <internalNodes>
            0 -1 140 -4.9263122491538525e-03</internalNodes>
          <leafValues>
            6.1345314979553223e-01 -1.4484980702400208e-01</leafValues></_>
        <_>
          <internalNodes>
            0 -1 167 3.9480901323258877e-03</internalNodes>
          <leafValues>
            -2.0734824240207672e-01 4.5239618420600891e-01</leafValues></_>
        <_>
          <internalNodes>
            0 -1 5 -1.3016936136409640e-03</internalNodes>
          <leafValues>
            -7.7650833129882813e-01 1.8213263154029846e-01</leafValues></_>
        <_>
          <internalNodes>
            0 -1 124 -4.6478945296257734e-04</internalNodes>
          <leafValues>
            3.8285130262374878e-01 -2.4555590748786926e-01</leafValues></_>
        <_>
          <internalNodes>
            0 -1 66 -3.8853501901030540e-03</internalNodes>
          <leafValues>
            -8.4569036960601807e-01 1.4160276949405670e-01</leafValues></_>
        <_>
          <internalNodes>
            0 -1 141 1.9127351697534323e-03</internalNodes>
          <leafValues>
            -3.2045668363571167e-01 2.7466654777526855e-01</leafValues></_>
        <_>
          <internalNodes>
            0 -1 57 -5.5348999798297882e-02</internalNodes>
          <leafValues>
            -1. 1.0617680847644806e-01</leafValues></_></weakClassifiers></_>
    <!-- stage 4 -->
    <_>
      <maxWeakCount>15</maxWeakCount>
      <stageThreshold>-1.9562336206436157e+00</stageThreshold>
      <weakClassifiers>
        <_>
          <internalNodes>
            0 -1 82 2.2213198244571686e-02</internalNodes>
          <leafValues>
            -8.6547881364822388e-01 -6.6666670143604279e-02</leafValues></_>
        <_>
          <internalNodes>
            0 -1 28 -2.0394068211317062e-02</internalNodes>
          <leafValues>
            3.3659905195236206e-02 -6.0945886373519897e-01</leafValues></_>
        <_>
          <internalNodes>
            0 -1 103 1.8341291695833206e-02</internalNodes>
          <leafValues>
            -2.5478079915046692e-01 4.6969330310821533e-01</leafValues></_>
        <_>
          <internalNodes>
            0 -1 47 -5.7519348338246346e-03</internalNodes>
          <leafValues>
            5.1831644773483276e-01 -1.7310141026973724e-01</leafValues></_>
        <_>
          <internalNodes>
            0 -1 159 3.6365548148751259e-03</internalNodes>
          <leafValues>
            -2.6532483100891113e-01 3.8637021183967590e-01</leafValues></_>
        <_>
          <internalNodes>
            0 -1 39 1.4792134985327721e-02</internalNodes>
          <leafValues>
            -2.6976293325424194e-01 3.2839611172676086e-01</leafValues></_>
        <_>
          <internalNodes>
            0 -1 109 -9.4378209905698895e-04</internalNodes>
          <leafValues>
            4.3462029099464417e-01 -1.9990369677543640e-01</leafValues></_>
        <_>
          <internalNodes>
            0 -1 189 -5.4102679714560509e-03</internalNodes>
          <leafValues>
            -5.7710242271423340e-01 1.8915373086929321e-01</leafValues></_>
        <_>
          <internalNodes>
            0 -1 79 9.9433679133653641e-03</internalNodes>
          <leafValues>
            -1.8334427475929260e-01 6.4067780971527100e-01</leafValues></_>
        <_>
          <internalNodes>
            0 -1 199 4.9886270426213741e-03</internalNodes>
          <leafValues>
            1.3606560230255127e-01 -1.</leafValues></_>
        <_>
          <internalNodes>
            0 -1 4 -2.3961988091468811e-01</internalNodes>
          <leafValues>
            8.0378204584121704e-01 -1.6615790128707886e-01</leafValues></_>
        <_>
          <internalNodes>
            0 -1 183 5.9983180835843086e-04</internalNodes>
          <leafValues>
            -2.1380995213985443e-01 4.7994053363800049e-01</leafValues></_>
        <_>
          <internalNodes>
            0 -1 25 7.1976706385612488e-02</internalNodes>
          <leafValues>
            -2.5587552785873413e-01 4.0452286601066589e-01</leafValues></_>
        <_>
          <internalNodes>
            0 -1 96 -1.3070449233055115e-02</internalNodes>
          <leafValues>
            5.0762909650802612e-01 -2.1240706741809845e-01</leafValues></_>
        <_>
          <internalNodes>
            0 -1 50 -4.0306318551301956e-03</internalNodes>
          <leafValues>
            4.4295012950897217e-01 -2.1651075780391693e-01</leafValues></_></weakClassifiers></_>
    <!-- stage 5 -->
    <_>
      <maxWeakCount>16</maxWeakCount>
      <stageThreshold>-1.9573405981063843e+00</stageThreshold>
      <weakClassifiers>
        <_>
          <internalNodes>
            0 -1 100 4.3009791523218155e-02</internalNodes>
          <leafValues>
            -8.5008662939071655e-01 2.8571429848670959e-01</leafValues></_>
        <_>
          <internalNodes>
            0 -1 120 -4.2519755661487579e-02</internalNodes>
          <leafValues>
            1.9272643327713013e-01 -5.3644818067550659e-01</leafValues></_>
        <_>
          <internalNodes>
            0 -1 77 2.2651370614767075e-02</internalNodes>
          <leafValues>
            -2.0022547245025635e-01 4.8643732070922852e-01</leafValues></_>
        <_>
          <internalNodes>
            0 -1 137 -3.1865801429376006e-04</internalNodes>
          <leafValues>
            3.8079550862312317e-01 -2.2613772749900818e-01</leafValues></_>
        <_>
          <internalNodes>
            0 -1 87 -7.8081921674311161e-03</internalNodes>
          <leafValues>
            -6.3929617404937744e-01 1.4316071569919586e-01</leafValues></_>
        <_>
          <internalNodes>
            0 -1 160 6.1305472627282143e-04</internalNodes>
          <leafValues>
            -2.0324833691120148e-01 4.1683906316757202e-01</leafValues></_>
        <_>
          <internalNodes>
            0 -1 29 -1.5090724825859070e-01</internalNodes>
          <leafValues>
            -3.8436695933341980e-01 2.6929441094398499e-01</leafValues></_>
        <_>
          <internalNodes>
            0 -1 56 4.8073339276015759e-03</internalNodes>
          <leafValues>
            -2.4351181089878082e-01 4.0475764870643616e-01</leafValues></_>
        <_>
          <internalNodes>
            0 -1 154 -6.6390559077262878e-03</internalNodes>
          <leafValues>
            3.2758361101150513e-01 -2.8022694587707520e-01</leafValues></_>
        <_>
          <internalNodes>
            0 -1 176 3.9861067198216915e-03</internalNodes>
          <leafValues>
            -2.4386996030807495e-01 3.4916365146636963e-01</leafValues></_>
        <_>
          <internalNodes>
            0 -1 58 -4.1918056085705757e-03</internalNodes>
          <leafValues>
            5.1674771308898926e-01 -1.6426038742065430e-01</leafValues></_>
        <_>
          <internalNodes>
            0 -1 76 6.7419693805277348e-03</internalNodes>
          <leafValues>
            1.5671643614768982e-01 -5.5909222364425659e-01</leafValues></_>
        <_>
          <internalNodes>
            0 -1 1 -3.6969196517020464e-03</internalNodes>
          <leafValues>
            2.7427193522453308e-01 -2.8674352169036865e-01</leafValues></_>
        <_>
          <internalNodes>
            0 -1 75 -4.6303970739245415e-03</internalNodes>
          <leafValues>
            -6.0025298595428467e-01 1.2237435579299927e-01</leafValues></_>
        <_>
          <internalNodes>
            0 -1 72 -3.1489380635321140e-03</internalNodes>
          <leafValues>
            5.6976997852325439e-01 -1.6297851502895355e-01</leafValues></_>
        <_>
          <internalNodes>
            0 -1 6 3.5402099601924419e-03</internalNodes>
          <leafValues>
            1.4643236994743347e-01 -6.1920481920242310e-01</leafValues></_></weakClassifiers></_>
    <!-- stage 6 -->
    <_>
      <maxWeakCount>20</maxWeakCount>
      <stageThreshold>-1.8318885564804077e+00</stageThreshold>
      <weakClassifiers>
        <_>
          <internalNodes>
            0 -1 136 -2.4707220494747162e-02</internalNodes>
          <leafValues>
            6.0000002384185791e-01 -8.4516131877899170e-01</leafValues></_>
        <_>
          <internalNodes>
            0 -1 60 5.4409522563219070e-03</internalNodes>
          <leafValues>
            -4.9611726403236389e-01 2.1244281530380249e-01</leafValues></_>
        <_>
          <internalNodes>
            0 -1 54 -3.3626981079578400e-02</internalNodes>
          <leafValues>
            3.3091989159584045e-01 -2.7840057015419006e-01</leafValues></_>
        <_>
          <internalNodes>
            0 -1 32 -1.1743551120162010e-02</internalNodes>
          <leafValues>
            5.6687134504318237e-01 -1.2477628886699677e-01</leafValues></_>
        <_>
          <internalNodes>
            0 -1 155 -8.3857521414756775e-02</internalNodes>
          <leafValues>
            4.9800205230712891e-01 -1.6306200623512268e-01</leafValues></_>
        <_>
          <internalNodes>
            0 -1 185 7.0106011116877198e-04</internalNodes>
          <leafValues>
            -2.8540915250778198e-01 2.8272604942321777e-01</leafValues></_>
        <_>
          <internalNodes>
            0 -1 95 -8.4141679108142853e-03</internalNodes>
          <leafValues>
            3.3071383833885193e-01 -2.1663285791873932e-01</leafValues></_>
        <_>
          <internalNodes>
            0 -1 197 4.2823399417102337e-04</internalNodes>
          <leafValues>
            -2.8643268346786499e-01 2.5971871614456177e-01</leafValues></_>
        <_>
          <internalNodes>
            0 -1 192 -1.1017948854714632e-03</internalNodes>
          <leafValues>
            -7.0819842815399170e-01 1.0296626389026642e-01</leafValues></_>
        <_>
          <internalNodes>
            0 -1 78 -5.3590314928442240e-04</internalNodes>
          <leafValues>
            4.3737810850143433e-01 -1.9806429743766785e-01</leafValues></_>
        <_>
          <internalNodes>
            0 -1 102 7.3288127779960632e-02</internalNodes>
          <leafValues>
            8.6985491216182709e-02 -7.4113690853118896e-01</leafValues></_>
        <_>
          <internalNodes>
            0 -1 71 -2.1285577677190304e-03</internalNodes>
          <leafValues>
            2.3060099780559540e-01 -3.6086770892143250e-01</leafValues></_>
        <_>
          <internalNodes>
            0 -1 21 -5.4385070689022541e-04</internalNodes>
          <leafValues>
            -5.8067405223846436e-01 1.3352723419666290e-01</leafValues></_>
        <_>
          <internalNodes>
            0 -1 150 1.4295905129984021e-03</internalNodes>
          <leafValues>
            -2.0075231790542603e-01 3.5133308172225952e-01</leafValues></_>
        <_>
          <internalNodes>
            0 -1 26 -3.1991272699087858e-03</internalNodes>
          <leafValues>
            3.9146900177001953e-01 -1.9439750909805298e-01</leafValues></_>
        <_>
          <internalNodes>
            0 -1 17 2.3997733369469643e-03</internalNodes>
          <leafValues>
            1.1243002116680145e-01 -5.9328669309616089e-01</leafValues></_>
        <_>
          <internalNodes>
            0 -1 86 -4.7353125410154462e-04</internalNodes>
          <leafValues>
            2.5317668914794922e-01 -2.6434665918350220e-01</leafValues></_>
        <_>
          <internalNodes>
            0 -1 35 2.4283904582262039e-02</internalNodes>
          <leafValues>
            -1.9134016335010529e-01 3.6471903324127197e-01</leafValues></_>
        <_>
          <internalNodes>
            0 -1 123 -5.3246496245265007e-03</internalNodes>
          <leafValues>
            6.4864063262939453e-01 -1.1795543879270554e-01</leafValues></_>
        <_>
          <internalNodes>
            0 -1 13 6.9311009719967842e-03</internalNodes>
          <leafValues>
            -1.2821769714355469e-01 5.3732579946517944e-01</leafValues></_></weakClassifiers></_>
    <!-- stage 7 -->
    <_>
      <maxWeakCount>19</maxWeakCount>
      <stageThreshold>-1.8342001438140869e+00</stageThreshold>
      <weakClassifiers>
        <_>
          <internalNodes>
            0 -1 99 4.2234439402818680e-02</internalNodes>
          <leafValues>
            -8.5065501928329468e-01 -3.3333335071802139e-02</leafValues></_>
        <_>
          <internalNodes>
            0 -1 24 2.8747383505105972e-02</internalNodes>
          <leafValues>
            -5.3877085447311401e-01 1.8305363482795656e-04</leafValues></_>
        <_>
          <internalNodes>
            0 -1 92 -9.6007194370031357e-03</internalNodes>
          <leafValues>
            4.1331085562705994e-01 -1.9348022341728210e-01</leafValues></_>
        <_>
          <internalNodes>
            0 -1 0 -1.4997168909758329e-03</internalNodes>
          <leafValues>
            -8.1775814294815063e-01 8.6014658212661743e-02</leafValues></_>
        <_>
          <internalNodes>
            0 -1 112 -7.2376464959233999e-04</internalNodes>
          <leafValues>
            3.4590357542037964e-01 -1.8308536708354950e-01</leafValues></_>
        <_>
          <internalNodes>
            0 -1 81 -4.3705441057682037e-03</internalNodes>
          <leafValues>
            4.3113419413566589e-01 -1.4056931436061859e-01</leafValues></_>
        <_>
          <internalNodes>
            0 -1 108 -3.6699447082355618e-04</internalNodes>
          <leafValues>
            3.2938414812088013e-01 -1.9552868604660034e-01</leafValues></_>
        <_>
          <internalNodes>
            0 -1 67 1.4519441872835159e-02</internalNodes>
          <leafValues>
            -1.1029858887195587e-01 5.1944553852081299e-01</leafValues></_>
        <_>
          <internalNodes>
            0 -1 117 -8.9349582791328430e-02</internalNodes>
          <leafValues>
            -9.4083957374095917e-02 6.4338141679763794e-01</leafValues></_>
        <_>
          <internalNodes>
            0 -1 98 5.0486496184021235e-04</internalNodes>
          <leafValues>
            -1.4662426710128784e-01 4.5218327641487122e-01</leafValues></_>
        <_>
          <internalNodes>
            0 -1 27 -1.0908429324626923e-01</internalNodes>
          <leafValues>
            3.7474578619003296e-01 -1.7492501437664032e-01</leafValues></_>
        <_>
          <internalNodes>
            0 -1 43 1.5953127294778824e-03</internalNodes>
          <leafValues>
            -1.3968984782695770e-01 4.1993892192840576e-01</leafValues></_>
        <_>
          <internalNodes>
            0 -1 61 -3.4762977156788111e-04</internalNodes>
          <leafValues>
            3.5935026407241821e-01 -1.8898861110210419e-01</leafValues></_>
        <_>
          <internalNodes>
            0 -1 7 4.9038720317184925e-04</internalNodes>
          <leafValues>
            1.4712461829185486e-01 -4.2836642265319824e-01</leafValues></_>
        <_>
          <internalNodes>
            0 -1 190 -1.1529353214427829e-03</internalNodes>
          <leafValues>
            -7.7806240320205688e-01 7.2878032922744751e-02</leafValues></_>
        <_>
          <internalNodes>
            0 -1 116 6.1267666518688202e-02</internalNodes>
          <leafValues>
            5.9377450495958328e-02 -7.7388453483581543e-01</leafValues></_>
        <_>
          <internalNodes>
            0 -1 122 -9.8364263772964478e-02</internalNodes>
          <leafValues>
            3.1592619419097900e-01 -2.1761070191860199e-01</leafValues></_>
        <_>
          <internalNodes>
            0 -1 152 3.6447055637836456e-02</internalNodes>
          <leafValues>
            -1.9772079586982727e-01 4.4001522660255432e-01</leafValues></_>
        <_>
          <internalNodes>
            0 -1 31 7.8391917049884796e-03</internalNodes>
          <leafValues>
            -1.2465778738260269e-01 4.7486680746078491e-01</leafValues></_></weakClassifiers></_>
    <!-- stage 8 -->
    <_>
      <maxWeakCount>21</maxWeakCount>
      <stageThreshold>-1.7869244813919067e+00</stageThreshold>
      <weakClassifiers>
        <_>
          <internalNodes>
            0 -1 130 1.8325677141547203e-02</internalNodes>
          <leafValues>
            -8.4192436933517456e-01 4.5454546809196472e-01</leafValues></_>
        <_>
          <internalNodes>
            0 -1 139 -8.9805582538247108e-03</internalNodes>
          <leafValues>
            3.3433574438095093e-01 -4.3809187412261963e-01</leafValues></_>
        <_>
          <internalNodes>
            0 -1 20 1.2506982602644712e-04</internalNodes>
          <leafValues>
            1.0183960944414139e-01 -5.1131623983383179e-01</leafValues></_>
        <_>
          <internalNodes>
            0 -1 70 -3.0956552363932133e-03</internalNodes>
          <leafValues>
            3.8025277853012085e-01 -1.5768212080001831e-01</leafValues></_>
        <_>
          <internalNodes>
            0 -1 97 1.5772320330142975e-02</internalNodes>
          <leafValues>
            -1.6802299022674561e-01 3.5865685343742371e-01</leafValues></_>
        <_>
          <internalNodes>
            0 -1 107 -5.0389923155307770e-02</internalNodes>
          <leafValues>
            -7.0740497112274170e-01 1.2819847464561462e-01</leafValues></_>
        <_>
          <internalNodes>
            0 -1 36 -5.0951883196830750e-02</internalNodes>
          <leafValues>
            -3.4178099036216736e-01 1.5526206791400909e-01</leafValues></_>
        <_>
          <internalNodes>
            0 -1 173 -5.1441565155982971e-03</internalNodes>
          <leafValues>
            4.9990093708038330e-01 -1.0562297701835632e-01</leafValues></_>
        <_>
          <internalNodes>
            0 -1 68 -2.1960891783237457e-02</internalNodes>
          <leafValues>
            4.6767991781234741e-01 -1.1878087371587753e-01</leafValues></_>
        <_>
          <internalNodes>
            0 -1 111 8.1348707899451256e-03</internalNodes>
          <leafValues>
            -7.6427139341831207e-02 6.2690097093582153e-01</leafValues></_>
        <_>
          <internalNodes>
            0 -1 162 -6.2022125348448753e-04</internalNodes>
          <leafValues>
            3.7157142162322998e-01 -1.6670921444892883e-01</leafValues></_>
        <_>
          <internalNodes>
            0 -1 191 -5.5548353120684624e-03</internalNodes>
          <leafValues>
            -7.3619621992111206e-01 7.8306525945663452e-02</leafValues></_>
        <_>
          <internalNodes>
            0 -1 34 -1.6043111099861562e-04</internalNodes>
          <leafValues>
            2.0317344367504120e-01 -2.9777184128761292e-01</leafValues></_>
        <_>
          <internalNodes>
            0 -1 30 -1.9190549850463867e-02</internalNodes>
          <leafValues>
            -6.1781334877014160e-01 8.8759370148181915e-02</leafValues></_>
        <_>
          <internalNodes>
            0 -1 8 -4.2666263878345490e-02</internalNodes>
          <leafValues>
            4.6595165133476257e-01 -1.4291323721408844e-01</leafValues></_>
        <_>
          <internalNodes>
            0 -1 158 -3.9198072045110166e-04</internalNodes>
          <leafValues>
            3.5278856754302979e-01 -1.6274839639663696e-01</leafValues></_>
        <_>
          <internalNodes>
            0 -1 14 1.1381957447156310e-03</internalNodes>
          <leafValues>
            1.1125300824642181e-01 -5.3300440311431885e-01</leafValues></_>
        <_>
          <internalNodes>
            0 -1 131 -7.7072472777217627e-04</internalNodes>
          <leafValues>
            3.1020432710647583e-01 -2.1237112581729889e-01</leafValues></_>
        <_>
          <internalNodes>
            0 -1 41 2.2756403777748346e-03</internalNodes>
          <leafValues>
            7.5512021780014038e-02 -7.6539087295532227e-01</leafValues></_>
        <_>
          <internalNodes>
            0 -1 2 6.6458471119403839e-03</internalNodes>
          <leafValues>
            8.3523355424404144e-02 -5.5586361885070801e-01</leafValues></_>
        <_>
          <internalNodes>
            0 -1 126 -1.6604032134637237e-03</internalNodes>
          <leafValues>
            3.0610710382461548e-01 -1.9813826680183411e-01</leafValues></_></weakClassifiers></_>
    <!-- stage 9 -->
    <_>
      <maxWeakCount>22</maxWeakCount>
      <stageThreshold>-1.7484685182571411e+00</stageThreshold>
      <weakClassifiers>
        <_>
          <internalNodes>
            0 -1 128 2.6259309053421021e-01</internalNodes>
          <leafValues>
            -8.4615385532379150e-01 -2.2580644488334656e-01</leafValues></_>
        <_>
          <internalNodes>
            0 -1 48 1.4347844757139683e-02</internalNodes>
          <leafValues>
            -5.4150396585464478e-01 -2.7362264227122068e-03</leafValues></_>
        <_>
          <internalNodes>
            0 -1 149 -9.7465328872203827e-03</internalNodes>
          <leafValues>
            3.9759513735771179e-01 -1.9535757601261139e-01</leafValues></_>
        <_>
          <internalNodes>
            0 -1 198 2.4505628971382976e-04</internalNodes>
          <leafValues>
            -1.8384854495525360e-01 3.4650671482086182e-01</leafValues></_>
        <_>
          <internalNodes>
            0 -1 23 -1.0732768569141626e-03</internalNodes>
          <leafValues>
            -5.0923764705657959e-01 1.2002003192901611e-01</leafValues></_>
        <_>
          <internalNodes>
            0 -1 65 1.0353864636272192e-03</internalNodes>
          <leafValues>
            1.4900308847427368e-01 -4.6075087785720825e-01</leafValues></_>
        <_>
          <internalNodes>
            0 -1 161 1.7991919070482254e-02</internalNodes>
          <leafValues>
            1.3820767402648926e-01 -4.3542319536209106e-01</leafValues></_>
        <_>
          <internalNodes>
            0 -1 144 4.9793330254033208e-04</internalNodes>
          <leafValues>
            -2.0004513859748840e-01 2.9708713293075562e-01</leafValues></_>
        <_>
          <internalNodes>
            0 -1 142 -2.8567008674144745e-02</internalNodes>
          <leafValues>
            -1.0153176635503769e-01 5.9703946113586426e-01</leafValues></_>
        <_>
          <internalNodes>
            0 -1 91 -9.4226524233818054e-02</internalNodes>
          <leafValues>
            2.4165184795856476e-01 -2.6701012253761292e-01</leafValues></_>
        <_>
          <internalNodes>
            0 -1 64 4.4149532914161682e-04</internalNodes>
          <leafValues>
            -2.0045927166938782e-01 3.2121002674102783e-01</leafValues></_>
        <_>
          <internalNodes>
            0 -1 106 4.5965341851115227e-03</internalNodes>
          <leafValues>
            -1.9628112018108368e-01 2.8805446624755859e-01</leafValues></_>
        <_>
          <internalNodes>
            0 -1 115 -3.5000883508473635e-04</internalNodes>
          <leafValues>
            3.3408468961715698e-01 -1.8689844012260437e-01</leafValues></_>
        <_>
          <internalNodes>
            0 -1 134 1.0038355831056833e-03</internalNodes>
          <leafValues>
            -1.5638817846775055e-01 3.5850089788436890e-01</leafValues></_>
        <_>
          <internalNodes>
            0 -1 11 1.0376301361247897e-03</internalNodes>
          <leafValues>
            -2.6195579767227173e-01 2.1978273987770081e-01</leafValues></_>
        <_>
          <internalNodes>
            0 -1 121 -1.1994941160082817e-03</internalNodes>
          <leafValues>
            4.2922317981719971e-01 -1.2660419940948486e-01</leafValues></_>
        <_>
          <internalNodes>
            0 -1 89 -1.5995472494978458e-04</internalNodes>
          <leafValues>
            3.2515853643417358e-01 -1.6398149728775024e-01</leafValues></_>
        <_>
          <internalNodes>
            0 -1 175 -2.3376788012683392e-03</internalNodes>
          <leafValues>
            -7.3269402980804443e-01 7.5043998658657074e-02</leafValues></_>
        <_>
          <internalNodes>
            0 -1 196 -4.4835323933511972e-04</internalNodes>
          <leafValues>
            -7.3464894294738770e-01 5.9269785881042480e-02</leafValues></_>
        <_>
          <internalNodes>
            0 -1 179 -3.4708488965407014e-04</internalNodes>
          <leafValues>
            2.6662856340408325e-01 -2.0413942635059357e-01</leafValues></_>
        <_>
          <internalNodes>
            0 -1 187 -5.3008599206805229e-04</internalNodes>
          <leafValues>
            3.4481951594352722e-01 -1.6168732941150665e-01</leafValues></_>
        <_>
          <internalNodes>
            0 -1 184 -6.0281250625848770e-03</internalNodes>
          <leafValues>
            -3.7122851610183716e-01 1.5931774675846100e-01</leafValues></_></weakClassifiers></_>
    <!-- stage 10 -->
    <_>
      <maxWeakCount>21</maxWeakCount>
      <stageThreshold>-1.7604194879531860e+00</stageThreshold>
      <weakClassifiers>
        <_>
          <internalNodes>
            0 -1 94 -2.0265657454729080e-02</internalNodes>
          <leafValues>
            -2.8205129504203796e-01 -8.4859156608581543e-01</leafValues></_>
        <_>
          <internalNodes>
            0 -1 132 2.2751346230506897e-02</internalNodes>
          <leafValues>
            -4.7045797109603882e-01 1.0080064833164215e-01</leafValues></_>
        <_>
          <internalNodes>
            0 -1 51 -3.7678532302379608e-02</internalNodes>
          <leafValues>
            2.1601526439189911e-01 -2.8317639231681824e-01</leafValues></_>
        <_>
          <internalNodes>
            0 -1 177 -1.6703121364116669e-03</internalNodes>
          <leafValues>
            2.5736725330352783e-01 -2.4648234248161316e-01</leafValues></_>
        <_>
          <internalNodes>
            0 -1 172 2.9747642576694489e-02</internalNodes>
          <leafValues>
            -1.5541411936283112e-01 3.8059547543525696e-01</leafValues></_>
        <_>
          <internalNodes>
            0 -1 74 5.8610297739505768e-02</internalNodes>
          <leafValues>
            9.6334122121334076e-02 -6.3529521226882935e-01</leafValues></_>
        <_>
          <internalNodes>
            0 -1 9 -2.9616719111800194e-03</internalNodes>
          <leafValues>
            -5.6450480222702026e-01 1.1295907199382782e-01</leafValues></_>
        <_>
          <internalNodes>
            0 -1 151 -1.8660688074305654e-03</internalNodes>
          <leafValues>
            -7.3687934875488281e-01 8.2425147294998169e-02</leafValues></_>
        <_>
          <internalNodes>
            0 -1 181 -2.3034894838929176e-03</internalNodes>
          <leafValues>
            4.7775316238403320e-01 -1.3161417841911316e-01</leafValues></_>
        <_>
          <internalNodes>
            0 -1 170 -7.4731005588546395e-04</internalNodes>
          <leafValues>
            4.8138821125030518e-01 -1.3469904661178589e-01</leafValues></_>
        <_>
          <internalNodes>
            0 -1 171 5.4740021005272865e-04</internalNodes>
          <leafValues>
            -2.1698176860809326e-01 2.7164751291275024e-01</leafValues></_>
        <_>
          <internalNodes>
            0 -1 164 -2.2591446759179235e-04</internalNodes>
          <leafValues>
            2.8491905331611633e-01 -2.0828895270824432e-01</leafValues></_>
        <_>
          <internalNodes>
            0 -1 194 2.1989856031723320e-04</internalNodes>
          <leafValues>
            9.0338349342346191e-02 -6.4014691114425659e-01</leafValues></_>
        <_>
          <internalNodes>
            0 -1 88 -8.9848227798938751e-03</internalNodes>
          <leafValues>
            5.0426620244979858e-01 -1.0723792761564255e-01</leafValues></_>
        <_>
          <internalNodes>
            0 -1 22 2.2956423461437225e-02</internalNodes>
          <leafValues>
            -2.5674664974212646e-01 2.2832007706165314e-01</leafValues></_>
        <_>
          <internalNodes>
            0 -1 143 5.7265996932983398e-02</internalNodes>
          <leafValues>
            7.6769441366195679e-02 -7.1530330181121826e-01</leafValues></_>
        <_>
          <internalNodes>
            0 -1 168 7.9057307448238134e-04</internalNodes>
          <leafValues>
            -2.1172152459621429e-01 2.9001373052597046e-01</leafValues></_>
        <_>
          <internalNodes>
            0 -1 49 -3.1346647301688790e-04</internalNodes>
          <leafValues>
            3.7341043353080750e-01 -1.4709641039371490e-01</leafValues></_>
        <_>
          <internalNodes>
            0 -1 52 -1.3229877687990665e-02</internalNodes>
          <leafValues>
            -2.0034645497798920e-01 2.8678357601165771e-01</leafValues></_>
        <_>
          <internalNodes>
            0 -1 15 -1.9971426576375961e-02</internalNodes>
          <leafValues>
            9.5701396465301514e-02 -7.0213174819946289e-01</leafValues></_>
        <_>
          <internalNodes>
            0 -1 19 -9.1357644123490900e-05</internalNodes>
          <leafValues>
            -3.3640027046203613e-01 1.5556006133556366e-01</leafValues></_></weakClassifiers></_>
    <!-- stage 11 -->
    <_>
      <maxWeakCount>27</maxWeakCount>
      <stageThreshold>-1.8884980678558350e+00</stageThreshold>
      <weakClassifiers>
        <_>
          <internalNodes>
            0 -1 136 -3.4864164888858795e-02</internalNodes>
          <leafValues>
            1.1111111193895340e-01 -8.4072321653366089e-01</leafValues></_>
        <_>
          <internalNodes>
            0 -1 38 -2.0100217312574387e-02</internalNodes>
          <leafValues>
            -9.5738768577575684e-02 -5.3797984123229980e-01</leafValues></_>
        <_>
          <internalNodes>
            0 -1 42 -2.3378690239042044e-03</internalNodes>
          <leafValues>
            2.2588887810707092e-01 -2.4751558899879456e-01</leafValues></_>
        <_>
          <internalNodes>
            0 -1 138 -8.6805000901222229e-03</internalNodes>
          <leafValues>
            2.3162370920181274e-01 -2.1799173951148987e-01</leafValues></_>
        <_>
          <internalNodes>
            0 -1 90 1.1216454207897186e-02</internalNodes>
          <leafValues>
            9.8815418779850006e-02 -5.9274971485137939e-01</leafValues></_>
        <_>
          <internalNodes>
            0 -1 188 2.3703121114522219e-03</internalNodes>
          <leafValues>
            -1.8202160298824310e-01 2.5926208496093750e-01</leafValues></_>
        <_>
          <internalNodes>
            0 -1 3 -4.5782062225043774e-03</internalNodes>
          <leafValues>
            -6.0056197643280029e-01 7.3224827647209167e-02</leafValues></_>
        <_>
          <internalNodes>
            0 -1 105 -2.1958183497190475e-02</internalNodes>
          <leafValues>
            -8.0655783414840698e-01 8.4687225520610809e-02</leafValues></_>
        <_>
          <internalNodes>
            0 -1 129 -8.3195101469755173e-03</internalNodes>
          <leafValues>
            3.8635668158531189e-01 -1.3554070889949799e-01</leafValues></_>
        <_>
          <internalNodes>
            0 -1 69 -2.1499101421795785e-04</internalNodes>
          <leafValues>
            3.0387324094772339e-01 -1.5948386490345001e-01</leafValues></_>
        <_>
          <internalNodes>
            0 -1 46 -1.6714632511138916e-01</internalNodes>
          <leafValues>
            -6.4286088943481445e-01 7.2767928242683411e-02</leafValues></_>
        <_>
          <internalNodes>
            0 -1 174 9.9667580798268318e-04</internalNodes>
          <leafValues>
            -1.5707111358642578e-01 3.4894207119941711e-01</leafValues></_>
        <_>
          <internalNodes>
            0 -1 83 2.3500379174947739e-03</internalNodes>
          <leafValues>
            -1.5402607619762421e-01 3.4034857153892517e-01</leafValues></_>
        <_>
          <internalNodes>
            0 -1 63 -8.1753765698522329e-04</internalNodes>
          <leafValues>
            2.6740080118179321e-01 -1.8741707503795624e-01</leafValues></_>
        <_>
          <internalNodes>
            0 -1 195 4.5630549720954150e-05</internalNodes>
          <leafValues>
            1.7288586497306824e-01 -3.0245438218116760e-01</leafValues></_>
        <_>
          <internalNodes>
            0 -1 145 -7.2275102138519287e-02</internalNodes>
          <leafValues>
            5.6401348114013672e-01 -9.4844497740268707e-02</leafValues></_>
        <_>
          <internalNodes>
            0 -1 101 -4.0615508332848549e-03</internalNodes>
          <leafValues>
            5.4168343544006348e-01 -9.4193562865257263e-02</leafValues></_>
        <_>
          <internalNodes>
            0 -1 146 -8.8784396648406982e-03</internalNodes>
          <leafValues>
            -6.4192853868007660e-02 8.3110594749450684e-01</leafValues></_>
        <_>
          <internalNodes>
            0 -1 33 -1.4601394534111023e-02</internalNodes>
          <leafValues>
            4.8286324739456177e-01 -1.0425297915935516e-01</leafValues></_>
        <_>
          <internalNodes>
            0 -1 114 5.1215528510510921e-03</internalNodes>
          <leafValues>
            -3.1018221378326416e-01 2.1040128171443939e-01</leafValues></_>
        <_>
          <internalNodes>
            0 -1 16 1.4414587989449501e-02</internalNodes>
          <leafValues>
            -1.3920220732688904e-01 4.5420455932617188e-01</leafValues></_>
        <_>
          <internalNodes>
            0 -1 80 -4.3770915362983942e-04</internalNodes>
          <leafValues>
            4.0403828024864197e-01 -1.3390333950519562e-01</leafValues></_>
        <_>
          <internalNodes>
            0 -1 193 5.1300472114235163e-04</internalNodes>
          <leafValues>
            8.1403449177742004e-02 -7.5745916366577148e-01</leafValues></_>
        <_>
          <internalNodes>
            0 -1 45 -7.3383048176765442e-02</internalNodes>
          <leafValues>
            5.5364072322845459e-01 -1.2151646614074707e-01</leafValues></_>
        <_>
          <internalNodes>
            0 -1 113 2.7309744618833065e-03</internalNodes>
          <leafValues>
            1.0639587044715881e-01 -6.7969083786010742e-01</leafValues></_>
        <_>
          <internalNodes>
            0 -1 180 -1.1084910947829485e-03</internalNodes>
          <leafValues>
            3.5974308848381042e-01 -1.7803423106670380e-01</leafValues></_>
        <_>
          <internalNodes>
            0 -1 12 2.9886950505897403e-04</internalNodes>
          <leafValues>
            -2.2508668899536133e-01 2.7744433283805847e-01</leafValues></_></weakClassifiers></_></stages>
  <features>
    <_>
      <rects>
        <_>
          0 0 3 2 -1.</_>
        <_>
          0 1 3 1 2.</_></rects>
      <tilted>0</tilted></_>
    <_>
      <rects>
        <_>
          0 0 6 13 -1.</_>
        <_>
          3 0 3 13 2.</_></rects>
      <tilted>0</tilted></_>
    <_>
      <rects>
        <_>
          0 0 10 2 -1.</_>
        <_>
          5 0 5 2 2.</_></rects>
      <tilted>0</tilted></_>
    <_>
      <rects>
        <_>
          0 0 24 2 -1.</_>
        <_>
          0 0 12 1 2.</_>
        <_>
          12 1 12 1 2.</_></rects>
      <tilted>0</tilted></_>
    <_>
      <rects>
        <_>
          0 1 14 19 -1.</_>
        <_>
          7 1 7 19 2.</_></rects>
      <tilted>0</tilted></_>
    <_>
      <rects>
        <_>
          0 3 1 4 -1.</_>
        <_>
          0 5 1 2 2.</_></rects>
      <tilted>0</tilted></_>
    <_>
      <rects>
        <_>
          0 3 3 4 -1.</_>
        <_>
          0 5 3 2 2.</_></rects>
      <tilted>0</tilted></_>
    <_>
      <rects>
        <_>
          0 6 4 3 -1.</_>
        <_>
          2 6 2 3 2.</_></rects>
      <tilted>0</tilted></_>
    <_>
      <rects>
        <_>
          0 6 8 11 -1.</_>
        <_>
          4 6 4 11 2.</_></rects>
      <tilted>0</tilted></_>
    <_>
      <rects>
        <_>
          0 7 2 16 -1.</_>
        <_>
          0 7 1 8 2.</_>
        <_>
          1 15 1 8 2.</_></rects>
      <tilted>0</tilted></_>
    <_>
      <rects>
        <_>
          0 7 14 2 -1.</_>
        <_>
          0 7 7 1 2.</_>
        <_>
          7 8 7 1 2.</_></rects>
      <tilted>0</tilted></_>
    <_>
      <rects>
        <_>
          0 7 12 2 -1.</_>
        <_>
          0 8 12 1 2.</_></rects>
      <tilted>0</tilted></_>
    <_>
      <rects>
        <_>
          0 9 2 8 -1.</_>
        <_>
          0 9 1 4 2.</_>
        <_>
          1 13 1 4 2.</_></rects>
      <tilted>0</tilted></_>
    <_>
      <rects>
        <_>
          0 11 14 2 -1.</_>
        <_>
          0 12 14 1 2.</_></rects>
      <tilted>0</tilted></_>
    <_>
      <rects>
        <_>
          0 17 2 6 -1.</_>
        <_>
          1 17 1 6 2.</_></rects>
      <tilted>0</tilted></_>
    <_>
      <rects>
        <_>
          0 17 2 6 -1.</_>
        <_>
          0 19 2 2 2.</_></rects>
      <tilted>0</tilted></_>
    <_>
      <rects>
        <_>
          0 21 23 2 -1.</_>
        <_>
          0 22 23 1 2.</_></rects>
      <tilted>0</tilted></_>
    <_>
      <rects>
        <_>
          0 23 6 1 -1.</_>
        <_>
          3 23 3 1 2.</_></rects>
      <tilted>0</tilted></_>
    <_>
      <rects>
        <_>
          1 0 6 18 -1.</_>
        <_>
          1 6 6 6 2.</_></rects>
      <tilted>0</tilted></_>
    <_>
      <rects>
        <_>
          1 1 2 4 -1.</_>
        <_>
          1 1 1 2 2.</_>
        <_>
          2 3 1 2 2.</_></rects>
      <tilted>0</tilted></_>
    <_>
      <rects>
        <_>
          1 2 2 2 -1.</_>
        <_>
          1 2 1 1 2.</_>
        <_>
          2 3 1 1 2.</_></rects>
      <tilted>0</tilted></_>
    <_>
      <rects>
        <_>
          1 4 3 2 -1.</_>
        <_>
          1 5 3 1 2.</_></rects>
      <tilted>0</tilted></_>
    <_>
      <rects>
        <_>
          1 4 14 6 -1.</_>
        <_>
          8 4 7 6 2.</_></rects>
      <tilted>0</tilted></_>
    <_>
      <rects>
        <_>
          1 6 4 1 -1.</_>
        <_>
          3 6 2 1 2.</_></rects>
      <tilted>0</tilted></_>
    <_>
      <rects>
        <_>
          1 6 12 6 -1.</_>
        <_>
          1 6 6 3 2.</_>
        <_>
          7 9 6 3 2.</_></rects>
      <tilted>0</tilted></_>
    <_>
      <rects>
        <_>
          1 7 12 11 -1.</_>
        <_>
          7 7 6 11 2.</_></rects>
      <tilted>0</tilted></_>
    <_>
      <rects>
        <_>
          1 9 2 12 -1.</_>
        <_>
          2 9 1 12 2.</_></rects>
      <tilted>0</tilted></_>
    <_>
      <rects>
        <_>
          1 9 16 14 -1.</_>
        <_>
          1 9 8 7 2.</_>
        <_>
          9 16 8 7 2.</_></rects>
      <tilted>0</tilted></_>
    <_>
      <rects>
        <_>
          1 12 12 6 -1.</_>
        <_>
          1 12 6 3 2.</_>
        <_>
          7 15 6 3 2.</_></rects>
      <tilted>0</tilted></_>
    <_>
      <rects>
        <_>
          1 13 12 4 -1.</_>
        <_>
          5 13 4 4 2.</_></rects>
      <tilted>0</tilted></_>
    <_>
      <rects>
        <_>
          2 0 20 2 -1.</_>
        <_>
          12 0 10 2 2.</_></rects>
      <tilted>0</tilted></_>
    <_>
      <rects>
        <_>
          2 0 16 2 -1.</_>
        <_>
          2 1 16 1 2.</_></rects>
      <tilted>0</tilted></_>
    <_>
      <rects>
        <_>
          2 3 17 2 -1.</_>
        <_>
          2 4 17 1 2.</_></rects>
      <tilted>0</tilted></_>
    <_>
      <rects>
        <_>
          2 3 20 2 -1.</_>
        <_>
          2 4 20 1 2.</_></rects>
      <tilted>0</tilted></_>
    <_>
      <rects>
        <_>
          2 6 2 4 -1.</_>
        <_>
          2 8 2 2 2.</_></rects>
      <tilted>0</tilted></_>
    <_>
      <rects>
        <_>
          2 7 22 4 -1.</_>
        <_>
          2 9 22 2 2.</_></rects>
      <tilted>0</tilted></_>
    <_>
      <rects>
        <_>
          2 8 3 6 -1.</_>
        <_>
          3 8 1 6 2.</_></rects>
      <tilted>0</tilted></_>
    <_>
      <rects>
        <_>
          2 9 10 14 -1.</_>
        <_>
          2 9 5 7 2.</_>
        <_>
          7 16 5 7 2.</_></rects>
      <tilted>0</tilted></_>
    <_>
      <rects>
        <_>
          2 11 16 6 -1.</_>
        <_>
          2 11 8 3 2.</_>
        <_>
          10 14 8 3 2.</_></rects>
      <tilted>0</tilted></_>
    <_>
      <rects>
        <_>
          2 18 14 6 -1.</_>
        <_>
          2 21 14 3 2.</_></rects>
      <tilted>0</tilted></_>
    <_>
      <rects>
        <_>
          3 0 8 16 -1.</_>
        <_>
          3 0 4 8 2.</_>
        <_>
          7 8 4 8 2.</_></rects>
      <tilted>0</tilted></_>
    <_>
      <rects>
        <_>
          3 1 1 4 -1.</_>
        <_>
          3 3 1 2 2.</_></rects>
      <tilted>0</tilted></_>
    <_>
      <rects>
        <_>
          3 5 2 14 -1.</_>
        <_>
          3 12 2 7 2.</_></rects>
      <tilted>0</tilted></_>
    <_>
      <rects>
        <_>
          3 8 2 4 -1.</_>
        <_>
          3 10 2 2 2.</_></rects>
      <tilted>0</tilted></_>
    <_>
      <rects>
        <_>
          3 9 8 5 -1.</_>
        <_>
          7 9 4 5 2.</_></rects>
      <tilted>0</tilted></_>
    <_>
      <rects>
        <_>
          3 10 8 14 -1.</_>
        <_>
          7 10 4 14 2.</_></rects>
      <tilted>0</tilted></_>
    <_>
      <rects>
        <_>
          3 14 18 2 -1.</_>
        <_>
          9 14 6 2 2.</_></rects>
      <tilted>0</tilted></_>
    <_>
      <rects>
        <_>
          4 2 12 2 -1.</_>
        <_>
          4 3 12 1 2.</_></rects>
      <tilted>0</tilted></_>
    <_>
      <rects>
        <_>
          4 3 8 3 -1.</_>
        <_>
          8 3 4 3 2.</_></rects>
      <tilted>0</tilted></_>
    <_>
      <rects>
        <_>
          4 4 2 1 -1.</_>
        <_>
          5 4 1 1 2.</_></rects>
      <tilted>0</tilted></_>
    <_>
      <rects>
        <_>
          4 6 12 2 -1.</_>
        <_>
          4 7 12 1 2.</_></rects>
      <tilted>0</tilted></_>
    <_>
      <rects>
        <_>
          4 9 16 8 -1.</_>
        <_>
          4 13 16 4 2.</_></rects>
      <tilted>0</tilted></_>
    <_>
      <rects>
        <_>
          4 10 2 3 -1.</_>
        <_>
          4 11 2 1 2.</_></rects>
      <tilted>0</tilted></_>
    <_>
      <rects>
        <_>
          4 10 4 6 -1.</_>
        <_>
          4 10 2 3 2.</_>
        <_>
          6 13 2 3 2.</_></rects>
      <tilted>0</tilted></_>
    <_>
      <rects>
        <_>
          4 10 16 6 -1.</_>
        <_>
          4 13 16 3 2.</_></rects>
      <tilted>0</tilted></_>
    <_>
      <rects>
        <_>
          4 12 13 2 -1.</_>
        <_>
          4 13 13 1 2.</_></rects>
      <tilted>0</tilted></_>
    <_>
      <rects>
        <_>
          4 16 20 2 -1.</_>
        <_>
          4 17 20 1 2.</_></rects>
      <tilted>0</tilted></_>
    <_>
      <rects>
        <_>
          4 21 2 3 -1.</_>
        <_>
          4 22 2 1 2.</_></rects>
      <tilted>0</tilted></_>
    <_>
      <rects>
        <_>
          4 21 12 2 -1.</_>
        <_>
          4 21 6 1 2.</_>
        <_>
          10 22 6 1 2.</_></rects>
      <tilted>0</tilted></_>
    <_>
      <rects>
        <_>
          5 2 6 10 -1.</_>
        <_>
          8 2 3 10 2.</_></rects>
      <tilted>0</tilted></_>
    <_>
      <rects>
        <_>
          5 4 2 8 -1.</_>
        <_>
          5 4 1 4 2.</_>
        <_>
          6 8 1 4 2.</_></rects>
      <tilted>0</tilted></_>
    <_>
      <rects>
        <_>
          5 9 1 2 -1.</_>
        <_>
          5 10 1 1 2.</_></rects>
      <tilted>0</tilted></_>
    <_>
      <rects>
        <_>
          5 9 1 15 -1.</_>
        <_>
          5 14 1 5 2.</_></rects>
      <tilted>0</tilted></_>
    <_>
      <rects>
        <_>
          5 13 3 2 -1.</_>
        <_>
          5 14 3 1 2.</_></rects>
      <tilted>0</tilted></_>
    <_>
      <rects>
        <_>
          5 22 4 2 -1.</_>
        <_>
          5 22 2 1 2.</_>
        <_>
          7 23 2 1 2.</_></rects>
      <tilted>0</tilted></_>
    <_>
      <rects>
        <_>
          6 0 6 1 -1.</_>
        <_>
          9 0 3 1 2.</_></rects>
      <tilted>0</tilted></_>
    <_>
      <rects>
        <_>
          6 0 12 2 -1.</_>
        <_>
          6 0 6 1 2.</_>
        <_>
          12 1 6 1 2.</_></rects>
      <tilted>0</tilted></_>
    <_>
      <rects>
        <_>
          6 3 13 2 -1.</_>
        <_>
          6 4 13 1 2.</_></rects>
      <tilted>0</tilted></_>
    <_>
      <rects>
        <_>
          6 4 4 18 -1.</_>
        <_>
          8 4 2 18 2.</_></rects>
      <tilted>0</tilted></_>
    <_>
      <rects>
        <_>
          6 5 2 1 -1.</_>
        <_>
          7 5 1 1 2.</_></rects>
      <tilted>0</tilted></_>
    <_>
      <rects>
        <_>
          6 6 6 2 -1.</_>
        <_>
          6 6 3 1 2.</_>
        <_>
          9 7 3 1 2.</_></rects>
      <tilted>0</tilted></_>
    <_>
      <rects>
        <_>
          6 6 5 16 -1.</_>
        <_>
          6 14 5 8 2.</_></rects>
      <tilted>0</tilted></_>
    <_>
      <rects>
        <_>
          6 9 2 9 -1.</_>
        <_>
          7 9 1 9 2.</_></rects>
      <tilted>0</tilted></_>
    <_>
      <rects>
        <_>
          6 17 4 6 -1.</_>
        <_>
          6 17 2 3 2.</_>
        <_>
          8 20 2 3 2.</_></rects>
      <tilted>0</tilted></_>
    <_>
      <rects>
        <_>
          7 0 10 20 -1.</_>
        <_>
          7 0 5 10 2.</_>
        <_>
          12 10 5 10 2.</_></rects>
      <tilted>0</tilted></_>
    <_>
      <rects>
        <_>
          7 0 12 1 -1.</_>
        <_>
          13 0 6 1 2.</_></rects>
      <tilted>0</tilted></_>
    <_>
      <rects>
        <_>
          7 0 12 2 -1.</_>
        <_>
          13 0 6 2 2.</_></rects>
      <tilted>0</tilted></_>
    <_>
      <rects>
        <_>
          7 0 8 4 -1.</_>
        <_>
          7 2 8 2 2.</_></rects>
      <tilted>0</tilted></_>
    <_>
      <rects>
        <_>
          7 3 2 2 -1.</_>
        <_>
          7 3 1 1 2.</_>
        <_>
          8 4 1 1 2.</_></rects>
      <tilted>0</tilted></_>
    <_>
      <rects>
        <_>
          7 4 12 2 -1.</_>
        <_>
          7 5 12 1 2.</_></rects>
      <tilted>0</tilted></_>
    <_>
      <rects>
        <_>
          7 5 2 1 -1.</_>
        <_>
          8 5 1 1 2.</_></rects>
      <tilted>0</tilted></_>
    <_>
      <rects>
        <_>
          7 6 4 4 -1.</_>
        <_>
          7 6 2 2 2.</_>
        <_>
          9 8 2 2 2.</_></rects>
      <tilted>0</tilted></_>
    <_>
      <rects>
        <_>
          7 7 10 2 -1.</_>
        <_>
          7 8 10 1 2.</_></rects>
      <tilted>0</tilted></_>
    <_>
      <rects>
        <_>
          7 10 6 2 -1.</_>
        <_>
          7 10 3 1 2.</_>
        <_>
          10 11 3 1 2.</_></rects>
      <tilted>0</tilted></_>
    <_>
      <rects>
        <_>
          7 17 4 4 -1.</_>
        <_>
          9 17 2 4 2.</_></rects>
      <tilted>0</tilted></_>
    <_>
      <rects>
        <_>
          7 18 8 6 -1.</_>
        <_>
          7 18 4 3 2.</_>
        <_>
          11 21 4 3 2.</_></rects>
      <tilted>0</tilted></_>
    <_>
      <rects>
        <_>
          7 19 4 1 -1.</_>
        <_>
          9 19 2 1 2.</_></rects>
      <tilted>0</tilted></_>
    <_>
      <rects>
        <_>
          8 1 16 1 -1.</_>
        <_>
          16 1 8 1 2.</_></rects>
      <tilted>0</tilted></_>
    <_>
      <rects>
        <_>
          8 2 7 2 -1.</_>
        <_>
          8 3 7 1 2.</_></rects>
      <tilted>0</tilted></_>
    <_>
      <rects>
        <_>
          8 4 2 1 -1.</_>
        <_>
          9 4 1 1 2.</_></rects>
      <tilted>0</tilted></_>
    <_>
      <rects>
        <_>
          8 5 8 2 -1.</_>
        <_>
          12 5 4 2 2.</_></rects>
      <tilted>0</tilted></_>
    <_>
      <rects>
        <_>
          8 5 16 15 -1.</_>
        <_>
          16 5 8 15 2.</_></rects>
      <tilted>0</tilted></_>
    <_>
      <rects>
        <_>
          8 5 10 2 -1.</_>
        <_>
          8 6 10 1 2.</_></rects>
      <tilted>0</tilted></_>
    <_>
      <rects>
        <_>
          8 6 6 2 -1.</_>
        <_>
          10 6 2 2 2.</_></rects>
      <tilted>0</tilted></_>
    <_>
      <rects>
        <_>
          8 6 8 2 -1.</_>
        <_>
          8 7 8 1 2.</_></rects>
      <tilted>0</tilted></_>
    <_>
      <rects>
        <_>
          8 9 14 4 -1.</_>
        <_>
          8 9 7 2 2.</_>
        <_>
          15 11 7 2 2.</_></rects>
      <tilted>0</tilted></_>
    <_>
      <rects>
        <_>
          8 12 4 8 -1.</_>
        <_>
          10 12 2 8 2.</_></rects>
      <tilted>0</tilted></_>
    <_>
      <rects>
        <_>
          8 16 6 8 -1.</_>
        <_>
          8 16 3 4 2.</_>
        <_>
          11 20 3 4 2.</_></rects>
      <tilted>0</tilted></_>
    <_>
      <rects>
        <_>
          8 17 2 1 -1.</_>
        <_>
          9 17 1 1 2.</_></rects>
      <tilted>0</tilted></_>
    <_>
      <rects>
        <_>
          8 18 6 6 -1.</_>
        <_>
          8 18 3 3 2.</_>
        <_>
          11 21 3 3 2.</_></rects>
      <tilted>0</tilted></_>
    <_>
      <rects>
        <_>
          8 21 6 3 -1.</_>
        <_>
          11 21 3 3 2.</_></rects>
      <tilted>0</tilted></_>
    <_>
      <rects>
        <_>
          9 0 11 2 -1.</_>
        <_>
          9 1 11 1 2.</_></rects>
      <tilted>0</tilted></_>
    <_>
      <rects>
        <_>
          9 1 5 12 -1.</_>
        <_>
          9 7 5 6 2.</_></rects>
      <tilted>0</tilted></_>
    <_>
      <rects>
        <_>
          9 1 7 4 -1.</_>
        <_>
          9 3 7 2 2.</_></rects>
      <tilted>0</tilted></_>
    <_>
      <rects>
        <_>
          9 2 1 2 -1.</_>
        <_>
          9 3 1 1 2.</_></rects>
      <tilted>0</tilted></_>
    <_>
      <rects>
        <_>
          9 2 8 6 -1.</_>
        <_>
          9 2 4 3 2.</_>
        <_>
          13 5 4 3 2.</_></rects>
      <tilted>0</tilted></_>
    <_>
      <rects>
        <_>
          9 3 14 4 -1.</_>
        <_>
          9 3 7 2 2.</_>
        <_>
          16 5 7 2 2.</_></rects>
      <tilted>0</tilted></_>
    <_>
      <rects>
        <_>
          9 3 8 10 -1.</_>
        <_>
          9 8 8 5 2.</_></rects>
      <tilted>0</tilted></_>
    <_>
      <rects>
        <_>
          9 4 2 2 -1.</_>
        <_>
          10 4 1 2 2.</_></rects>
      <tilted>0</tilted></_>
    <_>
      <rects>
        <_>
          9 4 2 2 -1.</_>
        <_>
          9 5 2 1 2.</_></rects>
      <tilted>0</tilted></_>
    <_>
      <rects>
        <_>
          9 6 2 2 -1.</_>
        <_>
          9 6 1 1 2.</_>
        <_>
          10 7 1 1 2.</_></rects>
      <tilted>0</tilted></_>
    <_>
      <rects>
        <_>
          9 6 5 2 -1.</_>
        <_>
          9 7 5 1 2.</_></rects>
      <tilted>0</tilted></_>
    <_>
      <rects>
        <_>
          9 9 2 2 -1.</_>
        <_>
          9 10 2 1 2.</_></rects>
      <tilted>0</tilted></_>
    <_>
      <rects>
        <_>
          10 0 8 2 -1.</_>
        <_>
          10 0 4 1 2.</_>
        <_>
          14 1 4 1 2.</_></rects>
      <tilted>0</tilted></_>
    <_>
      <rects>
        <_>
          10 0 12 6 -1.</_>
        <_>
          10 3 12 3 2.</_></rects>
      <tilted>0</tilted></_>
    <_>
      <rects>
        <_>
          10 1 2 2 -1.</_>
        <_>
          10 2 2 1 2.</_></rects>
      <tilted>0</tilted></_>
    <_>
      <rects>
        <_>
          10 3 4 12 -1.</_>
        <_>
          10 9 4 6 2.</_></rects>
      <tilted>0</tilted></_>
    <_>
      <rects>
        <_>
          10 4 6 9 -1.</_>
        <_>
          10 7 6 3 2.</_></rects>
      <tilted>0</tilted></_>
    <_>
      <rects>
        <_>
          10 4 12 14 -1.</_>
        <_>
          16 4 6 14 2.</_></rects>
      <tilted>0</tilted></_>
    <_>
      <rects>
        <_>
          10 5 5 2 -1.</_>
        <_>
          10 6 5 1 2.</_></rects>
      <tilted>0</tilted></_>
    <_>
      <rects>
        <_>
          10 6 14 6 -1.</_>
        <_>
          10 6 7 3 2.</_>
        <_>
          17 9 7 3 2.</_></rects>
      <tilted>0</tilted></_>
    <_>
      <rects>
        <_>
          10 7 2 2 -1.</_>
        <_>
          10 8 2 1 2.</_></rects>
      <tilted>0</tilted></_>
    <_>
      <rects>
        <_>
          10 7 14 11 -1.</_>
        <_>
          17 7 7 11 2.</_></rects>
      <tilted>0</tilted></_>
    <_>
      <rects>
        <_>
          10 8 5 2 -1.</_>
        <_>
          10 9 5 1 2.</_></rects>
      <tilted>0</tilted></_>
    <_>
      <rects>
        <_>
          10 9 1 2 -1.</_>
        <_>
          10 10 1 1 2.</_></rects>
      <tilted>0</tilted></_>
    <_>
      <rects>
        <_>
          10 18 2 6 -1.</_>
        <_>
          10 18 1 3 2.</_>
        <_>
          11 21 1 3 2.</_></rects>
      <tilted>0</tilted></_>
    <_>
      <rects>
        <_>
          10 19 5 2 -1.</_>
        <_>
          10 20 5 1 2.</_></rects>
      <tilted>0</tilted></_>
    <_>
      <rects>
        <_>
          11 0 2 6 -1.</_>
        <_>
          11 3 2 3 2.</_></rects>
      <tilted>0</tilted></_>
    <_>
      <rects>
        <_>
          11 0 12 24 -1.</_>
        <_>
          17 0 6 24 2.</_></rects>
      <tilted>0</tilted></_>
    <_>
      <rects>
        <_>
          11 20 4 4 -1.</_>
        <_>
          13 20 2 4 2.</_></rects>
      <tilted>0</tilted></_>
    <_>
      <rects>
        <_>
          11 21 4 2 -1.</_>
        <_>
          11 22 4 1 2.</_></rects>
      <tilted>0</tilted></_>
    <_>
      <rects>
        <_>
          12 0 2 5 -1.</_>
        <_>
          13 0 1 5 2.</_></rects>
      <tilted>0</tilted></_>
    <_>
      <rects>
        <_>
          12 1 4 16 -1.</_>
        <_>
          14 1 2 16 2.</_></rects>
      <tilted>0</tilted></_>
    <_>
      <rects>
        <_>
          12 18 4 6 -1.</_>
        <_>
          12 18 2 3 2.</_>
        <_>
          14 21 2 3 2.</_></rects>
      <tilted>0</tilted></_>
    <_>
      <rects>
        <_>
          12 21 4 2 -1.</_>
        <_>
          12 21 2 1 2.</_>
        <_>
          14 22 2 1 2.</_></rects>
      <tilted>0</tilted></_>
    <_>
      <rects>
        <_>
          12 22 2 2 -1.</_>
        <_>
          12 23 2 1 2.</_></rects>
      <tilted>0</tilted></_>
    <_>
      <rects>
        <_>
          12 22 4 2 -1.</_>
        <_>
          14 22 2 2 2.</_></rects>
      <tilted>0</tilted></_>
    <_>
      <rects>
        <_>
          13 1 2 2 -1.</_>
        <_>
          13 2 2 1 2.</_></rects>
      <tilted>0</tilted></_>
    <_>
      <rects>
        <_>
          13 2 6 5 -1.</_>
        <_>
          16 2 3 5 2.</_></rects>
      <tilted>0</tilted></_>
    <_>
      <rects>
        <_>
          13 2 8 2 -1.</_>
        <_>
          13 2 4 1 2.</_>
        <_>
          17 3 4 1 2.</_></rects>
      <tilted>0</tilted></_>
    <_>
      <rects>
        <_>
          13 2 5 2 -1.</_>
        <_>
          13 3 5 1 2.</_></rects>
      <tilted>0</tilted></_>
    <_>
      <rects>
        <_>
          13 4 4 4 -1.</_>
        <_>
          13 4 2 2 2.</_>
        <_>
          15 6 2 2 2.</_></rects>
      <tilted>0</tilted></_>
    <_>
      <rects>
        <_>
          13 5 3 6 -1.</_>
        <_>
          13 7 3 2 2.</_></rects>
      <tilted>0</tilted></_>
    <_>
      <rects>
        <_>
          13 5 8 14 -1.</_>
        <_>
          13 5 4 7 2.</_>
        <_>
          17 12 4 7 2.</_></rects>
      <tilted>0</tilted></_>
    <_>
      <rects>
        <_>
          13 8 2 2 -1.</_>
        <_>
          14 8 1 2 2.</_></rects>
      <tilted>0</tilted></_>
    <_>
      <rects>
        <_>
          13 8 6 11 -1.</_>
        <_>
          16 8 3 11 2.</_></rects>
      <tilted>0</tilted></_>
    <_>
      <rects>
        <_>
          13 11 1 9 -1.</_>
        <_>
          13 14 1 3 2.</_></rects>
      <tilted>0</tilted></_>
    <_>
      <rects>
        <_>
          13 12 2 12 -1.</_>
        <_>
          13 12 1 6 2.</_>
        <_>
          14 18 1 6 2.</_></rects>
      <tilted>0</tilted></_>
    <_>
      <rects>
        <_>
          13 12 8 10 -1.</_>
        <_>
          13 12 4 5 2.</_>
        <_>
          17 17 4 5 2.</_></rects>
      <tilted>0</tilted></_>
    <_>
      <rects>
        <_>
          13 18 4 6 -1.</_>
        <_>
          13 18 2 3 2.</_>
        <_>
          15 21 2 3 2.</_></rects>
      <tilted>0</tilted></_>
    <_>
      <rects>
        <_>
          13 18 6 2 -1.</_>
        <_>
          13 18 3 1 2.</_>
        <_>
          16 19 3 1 2.</_></rects>
      <tilted>0</tilted></_>
    <_>
      <rects>
        <_>
          14 0 4 1 -1.</_>
        <_>
          16 0 2 1 2.</_></rects>
      <tilted>0</tilted></_>
    <_>
      <rects>
        <_>
          14 2 10 12 -1.</_>
        <_>
          19 2 5 12 2.</_></rects>
      <tilted>0</tilted></_>
    <_>
      <rects>
        <_>
          14 4 2 6 -1.</_>
        <_>
          14 4 1 3 2.</_>
        <_>
          15 7 1 3 2.</_></rects>
      <tilted>0</tilted></_>
    <_>
      <rects>
        <_>
          14 4 6 5 -1.</_>
        <_>
          17 4 3 5 2.</_></rects>
      <tilted>0</tilted></_>
    <_>
      <rects>
        <_>
          14 4 8 13 -1.</_>
        <_>
          18 4 4 13 2.</_></rects>
      <tilted>0</tilted></_>
    <_>
      <rects>
        <_>
          14 6 8 4 -1.</_>
        <_>
          14 6 4 2 2.</_>
        <_>
          18 8 4 2 2.</_></rects>
      <tilted>0</tilted></_>
    <_>
      <rects>
        <_>
          14 15 2 2 -1.</_>
        <_>
          14 15 1 1 2.</_>
        <_>
          15 16 1 1 2.</_></rects>
      <tilted>0</tilted></_>
    <_>
      <rects>
        <_>
          14 17 2 2 -1.</_>
        <_>
          14 17 1 1 2.</_>
        <_>
          15 18 1 1 2.</_></rects>
      <tilted>0</tilted></_>
    <_>
      <rects>
        <_>
          14 18 8 4 -1.</_>
        <_>
          14 18 4 2 2.</_>
        <_>
          18 20 4 2 2.</_></rects>
      <tilted>0</tilted></_>
    <_>
      <rects>
        <_>
          14 22 1 2 -1.</_>
        <_>
          14 23 1 1 2.</_></rects>
      <tilted>0</tilted></_>
    <_>
      <rects>
        <_>
          15 1 8 8 -1.</_>
        <_>
          15 5 8 4 2.</_></rects>
      <tilted>0</tilted></_>
    <_>
      <rects>
        <_>
          15 4 2 1 -1.</_>
        <_>
          16 4 1 1 2.</_></rects>
      <tilted>0</tilted></_>
    <_>
      <rects>
        <_>
          15 5 8 6 -1.</_>
        <_>
          15 5 4 3 2.</_>
        <_>
          19 8 4 3 2.</_></rects>
      <tilted>0</tilted></_>
    <_>
      <rects>
        <_>
          15 6 1 2 -1.</_>
        <_>
          15 7 1 1 2.</_></rects>
      <tilted>0</tilted></_>
    <_>
      <rects>
        <_>
          15 6 2 2 -1.</_>
        <_>
          15 6 1 1 2.</_>
        <_>
          16 7 1 1 2.</_></rects>
      <tilted>0</tilted></_>
    <_>
      <rects>
        <_>
          15 8 2 14 -1.</_>
        <_>
          16 8 1 14 2.</_></rects>
      <tilted>0</tilted></_>
    <_>
      <rects>
        <_>
          15 12 2 12 -1.</_>
        <_>
          15 12 1 6 2.</_>
        <_>
          16 18 1 6 2.</_></rects>
      <tilted>0</tilted></_>
    <_>
      <rects>
        <_>
          15 14 2 4 -1.</_>
        <_>
          16 14 1 4 2.</_></rects>
      <tilted>0</tilted></_>
    <_>
      <rects>
        <_>
          15 15 6 2 -1.</_>
        <_>
          15 15 3 1 2.</_>
        <_>
          18 16 3 1 2.</_></rects>
      <tilted>0</tilted></_>
    <_>
      <rects>
        <_>
          15 19 2 1 -1.</_>
        <_>
          16 19 1 1 2.</_></rects>
      <tilted>0</tilted></_>
    <_>
      <rects>
        <_>
          15 21 4 1 -1.</_>
        <_>
          17 21 2 1 2.</_></rects>
      <tilted>0</tilted></_>
    <_>
      <rects>
        <_>
          16 0 3 16 -1.</_>
        <_>
          16 8 3 8 2.</_></rects>
      <tilted>0</tilted></_>
    <_>
      <rects>
        <_>
          16 8 6 2 -1.</_>
        <_>
          16 8 3 1 2.</_>
        <_>
          19 9 3 1 2.</_></rects>
      <tilted>0</tilted></_>
    <_>
      <rects>
        <_>
          16 9 2 5 -1.</_>
        <_>
          17 9 1 5 2.</_></rects>
      <tilted>0</tilted></_>
    <_>
      <rects>
        <_>
          17 0 6 1 -1.</_>
        <_>
          20 0 3 1 2.</_></rects>
      <tilted>0</tilted></_>
    <_>
      <rects>
        <_>
          17 1 4 7 -1.</_>
        <_>
          19 1 2 7 2.</_></rects>
      <tilted>0</tilted></_>
    <_>
      <rects>
        <_>
          17 6 6 4 -1.</_>
        <_>
          17 8 6 2 2.</_></rects>
      <tilted>0</tilted></_>
    <_>
      <rects>
        <_>
          17 8 2 2 -1.</_>
        <_>
          17 8 1 1 2.</_>
        <_>
          18 9 1 1 2.</_></rects>
      <tilted>0</tilted></_>
    <_>
      <rects>
        <_>
          17 11 1 2 -1.</_>
        <_>
          17 12 1 1 2.</_></rects>
      <tilted>0</tilted></_>
    <_>
      <rects>
        <_>
          17 16 2 3 -1.</_>
        <_>
          18 16 1 3 2.</_></rects>
      <tilted>0</tilted></_>
    <_>
      <rects>
        <_>
          17 16 2 6 -1.</_>
        <_>
          17 16 1 3 2.</_>
        <_>
          18 19 1 3 2.</_></rects>
      <tilted>0</tilted></_>
    <_>
      <rects>
        <_>
          18 1 6 23 -1.</_>
        <_>
          21 1 3 23 2.</_></rects>
      <tilted>0</tilted></_>
    <_>
      <rects>
        <_>
          18 9 1 2 -1.</_>
        <_>
          18 10 1 1 2.</_></rects>
      <tilted>0</tilted></_>
    <_>
      <rects>
        <_>
          19 5 2 18 -1.</_>
        <_>
          19 14 2 9 2.</_></rects>
      <tilted>0</tilted></_>
    <_>
      <rects>
        <_>
          19 7 4 6 -1.</_>
        <_>
          21 7 2 6 2.</_></rects>
      <tilted>0</tilted></_>
    <_>
      <rects>
        <_>
          19 9 1 3 -1.</_>
        <_>
          19 10 1 1 2.</_></rects>
      <tilted>0</tilted></_>
    <_>
      <rects>
        <_>
          19 11 2 4 -1.</_>
        <_>
          19 11 1 2 2.</_>
        <_>
          20 13 1 2 2.</_></rects>
      <tilted>0</tilted></_>
    <_>
      <rects>
        <_>
          20 0 4 10 -1.</_>
        <_>
          22 0 2 10 2.</_></rects>
      <tilted>0</tilted></_>
    <_>
      <rects>
        <_>
          20 0 4 6 -1.</_>
        <_>
          20 3 4 3 2.</_></rects>
      <tilted>0</tilted></_>
    <_>
      <rects>
        <_>
          20 1 2 2 -1.</_>
        <_>
          20 2 2 1 2.</_></rects>
      <tilted>0</tilted></_>
    <_>
      <rects>
        <_>
          20 4 2 18 -1.</_>
        <_>
          20 4 1 9 2.</_>
        <_>
          21 13 1 9 2.</_></rects>
      <tilted>0</tilted></_>
    <_>
      <rects>
        <_>
          20 5 2 2 -1.</_>
        <_>
          20 6 2 1 2.</_></rects>
      <tilted>0</tilted></_>
    <_>
      <rects>
        <_>
          21 4 2 2 -1.</_>
        <_>
          21 4 1 1 2.</_>
        <_>
          22 5 1 1 2.</_></rects>
      <tilted>0</tilted></_>
    <_>
      <rects>
        <_>
          22 1 2 2 -1.</_>
        <_>
          22 1 1 1 2.</_>
        <_>
          23 2 1 1 2.</_></rects>
      <tilted>0</tilted></_>
    <_>
      <rects>
        <_>
          22 5 2 1 -1.</_>
        <_>
          23 5 1 1 2.</_></rects>
      <tilted>0</tilted></_>
    <_>
      <rects>
        <_>
          22 6 2 2 -1.</_>
        <_>
          22 6 1 1 2.</_>
        <_>
          23 7 1 1 2.</_></rects>
      <tilted>0</tilted></_>
    <_>
      <rects>
        <_>
          22 9 1 12 -1.</_>
        <_>
          22 15 1 6 2.</_></rects>
      <tilted>0</tilted></_>
    <_>
      <rects>
        <_>
          22 12 2 1 -1.</_>
        <_>
          23 12 1 1 2.</_></rects>
      <tilted>0</tilted></_>
    <_>
      <rects>
        <_>
          23 1 1 6 -1.</_>
        <_>
          23 4 1 3 2.</_></rects>
      <tilted>0</tilted></_></features></cascade>
</opencv_storage>
