<?xml version="1.0"?>
<opencv_storage>
<stage6>
  <maxWeakCount>53</maxWeakCount>
  <stageThreshold>-1.9796996116638184e+00</stageThreshold>
  <weakClassifiers>
    <_>
      <internalNodes>
        0 -1 98136 4.2053796350955963e-02</internalNodes>
      <leafValues>
        -8.5046285390853882e-01 -2.9936304688453674e-01</leafValues></_>
    <_>
      <internalNodes>
        0 -1 136330 -2.1063758060336113e-02</internalNodes>
      <leafValues>
        1.2303590029478073e-01 -4.7950068116188049e-01</leafValues></_>
    <_>
      <internalNodes>
        0 -1 71122 1.3305169530212879e-02</internalNodes>
      <leafValues>
        -2.0253819227218628e-01 3.2234945893287659e-01</leafValues></_>
    <_>
      <internalNodes>
        0 -1 34024 -6.9126486778259277e-02</internalNodes>
      <leafValues>
        3.7962538003921509e-01 -1.5412224829196930e-01</leafValues></_>
    <_>
      <internalNodes>
        0 -1 149213 7.5400946661829948e-04</internalNodes>
      <leafValues>
        -2.2218787670135498e-01 2.3225103318691254e-01</leafValues></_>
    <_>
      <internalNodes>
        0 -1 127784 -1.0860973037779331e-02</internalNodes>
      <leafValues>
        4.4151163101196289e-01 -1.1932243406772614e-01</leafValues></_>
    <_>
      <internalNodes>
        0 -1 155027 2.5967571418732405e-03</internalNodes>
      <leafValues>
        -1.5198589861392975e-01 2.8791522979736328e-01</leafValues></_>
    <_>
      <internalNodes>
        0 -1 129265 -1.1260639131069183e-01</internalNodes>
      <leafValues>
        4.1883784532546997e-01 -8.5769064724445343e-02</leafValues></_>
    <_>
      <internalNodes>
        0 -1 81237 9.4982527196407318e-02</internalNodes>
      <leafValues>
        7.4363060295581818e-02 -6.6351717710494995e-01</leafValues></_>
    <_>
      <internalNodes>
        0 -1 90806 2.9089625924825668e-02</internalNodes>
      <leafValues>
        7.1186304092407227e-02 -5.5458980798721313e-01</leafValues></_>
    <_>
      <internalNodes>
        0 -1 245 -9.2809610068798065e-03</internalNodes>
      <leafValues>
        -5.6726831197738647e-01 4.6283308416604996e-02</leafValues></_>
    <_>
      <internalNodes>
        0 -1 26926 -2.6511070318520069e-03</internalNodes>
      <leafValues>
        2.5162622332572937e-01 -1.6194303333759308e-01</leafValues></_>
    <_>
      <internalNodes>
        0 -1 86582 -2.9405798763036728e-02</internalNodes>
      <leafValues>
        5.8877420425415039e-01 -6.7715235054492950e-02</leafValues></_>
    <_>
      <internalNodes>
        0 -1 147709 1.1260507162660360e-03</internalNodes>
      <leafValues>
        -1.2594796717166901e-01 3.0914658308029175e-01</leafValues></_>
    <_>
      <internalNodes>
        0 -1 148026 -4.2773268069140613e-04</internalNodes>
      <leafValues>
        3.0560722947120667e-01 -1.4465057849884033e-01</leafValues></_>
    <_>
      <internalNodes>
        0 -1 60596 1.5289590228348970e-03</internalNodes>
      <leafValues>
        1.0208101570606232e-01 -4.3595418334007263e-01</leafValues></_>
    <_>
      <internalNodes>
        0 -1 83029 3.0946317128837109e-03</internalNodes>
      <leafValues>
        -1.9536864757537842e-01 2.0006051659584045e-01</leafValues></_>
    <_>
      <internalNodes>
        0 -1 65210 -8.9475139975547791e-02</internalNodes>
      <leafValues>
        4.2068457603454590e-01 -9.6527457237243652e-02</leafValues></_>
    <_>
      <internalNodes>
        0 -1 144029 -1.8736280617304146e-04</internalNodes>
      <leafValues>
        -3.4248918294906616e-01 1.1564806103706360e-01</leafValues></_>
    <_>
      <internalNodes>
        0 -1 138883 -6.6831451840698719e-04</internalNodes>
      <leafValues>
        3.4383162856101990e-01 -1.1405885219573975e-01</leafValues></_>
    <_>
      <internalNodes>
        0 -1 49721 -1.0214338079094887e-02</internalNodes>
      <leafValues>
        -5.5959618091583252e-01 6.9551758468151093e-02</leafValues></_>
    <_>
      <internalNodes>
        0 -1 53508 -7.9535152763128281e-03</internalNodes>
      <leafValues>
        3.2331266999244690e-01 -1.2474207580089569e-01</leafValues></_>
    <_>
      <internalNodes>
        0 -1 29194 -6.1563756316900253e-02</internalNodes>
      <leafValues>
        -8.4740704298019409e-01 5.2139680832624435e-02</leafValues></_>
    <_>
      <internalNodes>
        0 -1 67641 -3.6252032965421677e-02</internalNodes>
      <leafValues>
        2.4244432151317596e-01 -1.6905017197132111e-01</leafValues></_>
    <_>
      <internalNodes>
        0 -1 91271 -2.0592074841260910e-02</internalNodes>
      <leafValues>
        -6.3588595390319824e-01 7.1317456662654877e-02</leafValues></_>
    <_>
      <internalNodes>
        0 -1 101227 2.6513472199440002e-02</internalNodes>
      <leafValues>
        5.2356533706188202e-02 -6.0625183582305908e-01</leafValues></_>
    <_>
      <internalNodes>
        0 -1 128200 -2.2477968595921993e-03</internalNodes>
      <leafValues>
        -5.9778213500976563e-01 5.5219009518623352e-02</leafValues></_>
    <_>
      <internalNodes>
        0 -1 128513 -3.1676189973950386e-04</internalNodes>
      <leafValues>
        2.8929054737091064e-01 -1.3048578798770905e-01</leafValues></_>
    <_>
      <internalNodes>
        0 -1 100558 -2.5568495038896799e-04</internalNodes>
      <leafValues>
        2.9161053895950317e-01 -1.2836283445358276e-01</leafValues></_>
    <_>
      <internalNodes>
        0 -1 97112 1.1965380981564522e-03</internalNodes>
      <leafValues>
        -1.4795494079589844e-01 2.5789237022399902e-01</leafValues></_>
    <_>
      <internalNodes>
        0 -1 158283 2.5081946514546871e-03</internalNodes>
      <leafValues>
        9.9390827119350433e-02 -4.0430346131324768e-01</leafValues></_>
    <_>
      <internalNodes>
        0 -1 1867 -3.3052556216716766e-02</internalNodes>
      <leafValues>
        -7.0031285285949707e-01 4.7894537448883057e-02</leafValues></_>
    <_>
      <internalNodes>
        0 -1 41432 -1.4566658996045589e-02</internalNodes>
      <leafValues>
        4.4685813784599304e-01 -9.0714573860168457e-02</leafValues></_>
    <_>
      <internalNodes>
        0 -1 100559 5.4604490287601948e-04</internalNodes>
      <leafValues>
        -1.4129209518432617e-01 2.8332749009132385e-01</leafValues></_>
    <_>
      <internalNodes>
        0 -1 104404 -3.6667068488895893e-03</internalNodes>
      <leafValues>
        -6.4580851793289185e-01 5.9974946081638336e-02</leafValues></_>
    <_>
      <internalNodes>
        0 -1 137301 -1.6262202989310026e-03</internalNodes>
      <leafValues>
        2.5968050956726074e-01 -1.5011635422706604e-01</leafValues></_>
    <_>
      <internalNodes>
        0 -1 146214 -1.1096012312918901e-03</internalNodes>
      <leafValues>
        3.2740291953086853e-01 -1.1859960854053497e-01</leafValues></_>
    <_>
      <internalNodes>
        0 -1 25610 1.8767929868772626e-03</internalNodes>
      <leafValues>
        5.3095087409019470e-02 -7.7458626031875610e-01</leafValues></_>
    <_>
      <internalNodes>
        0 -1 98092 1.4087508898228407e-03</internalNodes>
      <leafValues>
        -1.3193446397781372e-01 3.0881839990615845e-01</leafValues></_>
    <_>
      <internalNodes>
        0 -1 25719 1.2741859536617994e-03</internalNodes>
      <leafValues>
        4.2954217642545700e-02 -9.8319327831268311e-01</leafValues></_>
    <_>
      <internalNodes>
        0 -1 10771 -1.3804584741592407e-03</internalNodes>
      <leafValues>
        2.4743370711803436e-01 -1.6208380460739136e-01</leafValues></_>
    <_>
      <internalNodes>
        0 -1 151490 1.3348753564059734e-03</internalNodes>
      <leafValues>
        -1.1773712933063507e-01 3.1736445426940918e-01</leafValues></_>
    <_>
      <internalNodes>
        0 -1 159492 -1.0166945867240429e-03</internalNodes>
      <leafValues>
        -7.1345764398574829e-01 5.7798780500888824e-02</leafValues></_>
    <_>
      <internalNodes>
        0 -1 43586 3.4439578652381897e-02</internalNodes>
      <leafValues>
        -1.5182168781757355e-01 2.7628067135810852e-01</leafValues></_>
    <_>
      <internalNodes>
        0 -1 108312 -6.7602530121803284e-02</internalNodes>
      <leafValues>
        -6.7501284182071686e-02 5.7112842798233032e-01</leafValues></_>
    <_>
      <internalNodes>
        0 -1 2898 -3.1398475170135498e-02</internalNodes>
      <leafValues>
        -2.2249546647071838e-01 1.8061070144176483e-01</leafValues></_>
    <_>
      <internalNodes>
        0 -1 158959 -3.4962125122547150e-02</internalNodes>
      <leafValues>
        4.7662504017353058e-02 -8.0010312795639038e-01</leafValues></_>
    <_>
      <internalNodes>
        0 -1 20653 -4.8753902316093445e-02</internalNodes>
      <leafValues>
        1.9972248375415802e-01 -1.9608069956302643e-01</leafValues></_>
    <_>
      <internalNodes>
        0 -1 114291 3.7305540172383189e-04</internalNodes>
      <leafValues>
        -1.5962381660938263e-01 2.5489449501037598e-01</leafValues></_>
    <_>
      <internalNodes>
        0 -1 53808 -5.0520626828074455e-03</internalNodes>
      <leafValues>
        3.1080955266952515e-01 -1.2800711393356323e-01</leafValues></_>
    <_>
      <internalNodes>
        0 -1 17241 -1.6311579383909702e-03</internalNodes>
      <leafValues>
        -5.4041147232055664e-01 6.9453328847885132e-02</leafValues></_>
    <_>
      <internalNodes>
        0 -1 83978 1.9765618443489075e-01</internalNodes>
      <leafValues>
        -5.5168922990560532e-02 8.3912539482116699e-01</leafValues></_>
    <_>
      <internalNodes>
        0 -1 160761 9.9431432317942381e-04</internalNodes>
      <leafValues>
        -1.1144985258579254e-01 3.4885323047637939e-01</leafValues></_></weakClassifiers></stage6>
</opencv_storage>
