<?xml version="1.0"?>
<opencv_storage>
<stage7>
  <maxWeakCount>40</maxWeakCount>
  <stageThreshold>-1.9132457971572876e+00</stageThreshold>
  <weakClassifiers>
    <_>
      <internalNodes>
        0 -1 98136 4.2105995118618011e-02</internalNodes>
      <leafValues>
        -8.4340041875839233e-01 -2.5170066952705383e-01</leafValues></_>
    <_>
      <internalNodes>
        0 -1 43181 2.2422762587666512e-02</internalNodes>
      <leafValues>
        -5.0783604383468628e-01 5.0556570291519165e-02</leafValues></_>
    <_>
      <internalNodes>
        0 -1 108407 -1.2367270886898041e-02</internalNodes>
      <leafValues>
        4.8741239309310913e-01 -1.3291613757610321e-01</leafValues></_>
    <_>
      <internalNodes>
        0 -1 14427 -3.3425732981413603e-03</internalNodes>
      <leafValues>
        -6.9405531883239746e-01 7.2284840047359467e-02</leafValues></_>
    <_>
      <internalNodes>
        0 -1 2990 -1.3897486031055450e-02</internalNodes>
      <leafValues>
        3.7743467092514038e-01 -1.1205046623945236e-01</leafValues></_>
    <_>
      <internalNodes>
        0 -1 98083 -5.1270960830152035e-04</internalNodes>
      <leafValues>
        2.6945486664772034e-01 -1.6004465520381927e-01</leafValues></_>
    <_>
      <internalNodes>
        0 -1 58102 -2.3170370608568192e-02</internalNodes>
      <leafValues>
        2.6821029186248779e-01 -1.6251739859580994e-01</leafValues></_>
    <_>
      <internalNodes>
        0 -1 157108 1.5584782231599092e-03</internalNodes>
      <leafValues>
        -1.4509883522987366e-01 3.1930249929428101e-01</leafValues></_>
    <_>
      <internalNodes>
        0 -1 156220 -1.7728605307638645e-03</internalNodes>
      <leafValues>
        -5.3460270166397095e-01 8.7822936475276947e-02</leafValues></_>
    <_>
      <internalNodes>
        0 -1 101227 2.3378882557153702e-02</internalNodes>
      <leafValues>
        9.3944616615772247e-02 -6.1122876405715942e-01</leafValues></_>
    <_>
      <internalNodes>
        0 -1 79669 -6.3569573685526848e-03</internalNodes>
      <leafValues>
        3.1028154492378235e-01 -1.7283426225185394e-01</leafValues></_>
    <_>
      <internalNodes>
        0 -1 18540 -3.9038278162479401e-02</internalNodes>
      <leafValues>
        -8.4313029050827026e-01 4.8450574278831482e-02</leafValues></_>
    <_>
      <internalNodes>
        0 -1 128200 -2.2492543794214725e-03</internalNodes>
      <leafValues>
        -5.9653091430664063e-01 6.7420907318592072e-02</leafValues></_>
    <_>
      <internalNodes>
        0 -1 102705 -2.8242432745173573e-04</internalNodes>
      <leafValues>
        2.6367565989494324e-01 -1.6068241000175476e-01</leafValues></_>
    <_>
      <internalNodes>
        0 -1 14131 -4.9832567572593689e-02</internalNodes>
      <leafValues>
        -7.3111796379089355e-01 6.0871895402669907e-02</leafValues></_>
    <_>
      <internalNodes>
        0 -1 159678 2.0514251664280891e-03</internalNodes>
      <leafValues>
        4.0660068392753601e-02 -8.2097804546356201e-01</leafValues></_>
    <_>
      <internalNodes>
        0 -1 4988 3.2263726461678743e-04</internalNodes>
      <leafValues>
        6.1934400349855423e-02 -5.6006723642349243e-01</leafValues></_>
    <_>
      <internalNodes>
        0 -1 52 -1.9508068216964602e-03</internalNodes>
      <leafValues>
        2.5883191823959351e-01 -1.4989323914051056e-01</leafValues></_>
    <_>
      <internalNodes>
        0 -1 152923 -5.5715389316901565e-04</internalNodes>
      <leafValues>
        1.7669285833835602e-01 -2.2641786932945251e-01</leafValues></_>
    <_>
      <internalNodes>
        0 -1 159720 -9.8514894489198923e-04</internalNodes>
      <leafValues>
        -7.5483196973800659e-01 5.0431203097105026e-02</leafValues></_>
    <_>
      <internalNodes>
        0 -1 166 -4.2030140757560730e-03</internalNodes>
      <leafValues>
        -5.9863185882568359e-01 5.3673360496759415e-02</leafValues></_>
    <_>
      <internalNodes>
        0 -1 2020 -1.1374777182936668e-02</internalNodes>
      <leafValues>
        5.0735747814178467e-01 -7.8218340873718262e-02</leafValues></_>
    <_>
      <internalNodes>
        0 -1 110588 -4.8517400864511728e-04</internalNodes>
      <leafValues>
        3.6392149329185486e-01 -1.1556187272071838e-01</leafValues></_>
    <_>
      <internalNodes>
        0 -1 4485 -1.2098573148250580e-02</internalNodes>
      <leafValues>
        2.6402425765991211e-01 -1.6350220143795013e-01</leafValues></_>
    <_>
      <internalNodes>
        0 -1 108597 -4.8600053414702415e-03</internalNodes>
      <leafValues>
        -4.2746093869209290e-01 8.8933005928993225e-02</leafValues></_>
    <_>
      <internalNodes>
        0 -1 84773 -1.6761309234425426e-03</internalNodes>
      <leafValues>
        3.2812374830245972e-01 -1.3559155166149139e-01</leafValues></_>
    <_>
      <internalNodes>
        0 -1 25719 1.1700369650498033e-03</internalNodes>
      <leafValues>
        4.3747980147600174e-02 -9.2151457071304321e-01</leafValues></_>
    <_>
      <internalNodes>
        0 -1 154676 -1.0804131161421537e-03</internalNodes>
      <leafValues>
        3.3789932727813721e-01 -1.2146397680044174e-01</leafValues></_>
    <_>
      <internalNodes>
        0 -1 124168 2.3020005226135254e-01</internalNodes>
      <leafValues>
        -6.8655803799629211e-02 5.7870388031005859e-01</leafValues></_>
    <_>
      <internalNodes>
        0 -1 92325 -5.7961594313383102e-02</internalNodes>
      <leafValues>
        2.4546833336353302e-01 -2.1859918534755707e-01</leafValues></_>
    <_>
      <internalNodes>
        0 -1 158327 8.3537364844232798e-04</internalNodes>
      <leafValues>
        -2.0538352429866791e-01 2.0698079466819763e-01</leafValues></_>
    <_>
      <internalNodes>
        0 -1 158176 -8.2153110997751355e-04</internalNodes>
      <leafValues>
        -3.3744689822196960e-01 1.2388666719198227e-01</leafValues></_>
    <_>
      <internalNodes>
        0 -1 89041 -3.6633273703046143e-04</internalNodes>
      <leafValues>
        2.9359537363052368e-01 -1.4335145056247711e-01</leafValues></_>
    <_>
      <internalNodes>
        0 -1 122032 1.7941869795322418e-02</internalNodes>
      <leafValues>
        -1.1162550747394562e-01 3.5089004039764404e-01</leafValues></_>
    <_>
      <internalNodes>
        0 -1 41484 -3.6994213587604463e-04</internalNodes>
      <leafValues>
        -5.2845585346221924e-01 7.8326389193534851e-02</leafValues></_>
    <_>
      <internalNodes>
        0 -1 97405 6.5220252145081758e-04</internalNodes>
      <leafValues>
        -1.5818612277507782e-01 2.6611256599426270e-01</leafValues></_>
    <_>
      <internalNodes>
        0 -1 64794 -1.8824163824319839e-02</internalNodes>
      <leafValues>
        5.1983582973480225e-01 -7.9814419150352478e-02</leafValues></_>
    <_>
      <internalNodes>
        0 -1 129643 -8.1473901867866516e-02</internalNodes>
      <leafValues>
        -9.8046422004699707e-02 5.0754058361053467e-01</leafValues></_>
    <_>
      <internalNodes>
        0 -1 121040 2.9427219182252884e-02</internalNodes>
      <leafValues>
        -1.4346668124198914e-01 2.8385877609252930e-01</leafValues></_>
    <_>
      <internalNodes>
        0 -1 133630 -1.1165621690452099e-03</internalNodes>
      <leafValues>
        2.8686082363128662e-01 -1.5798397362232208e-01</leafValues></_></weakClassifiers></stage7>
</opencv_storage>
